digraph Tree {
node [shape=box, style="filled, rounded", color="black", fontname=helvetica] ;
edge [fontname=helvetica] ;
0 [label="hp <= 87.0\ngini = 0.66\nsamples = 302\nvalue = [83, 119, 100]\nclass = Low c", fillcolor="#ecfdf3"] ;
1 [label="spa <= 125.5\ngini = 0.61\nsamples = 192\nvalue = [32, 96, 64]\nclass = Low c", fillcolor="#cef8e0"] ;
0 -> 1 [labeldistance=2.5, labelangle=45, headlabel="True"] ;
2 [label="def <= 60.5\ngini = 0.58\nsamples = 172\nvalue = [22, 93, 57]\nclass = Low c", fillcolor="#c1f7d8"] ;
1 -> 2 ;
3 [label="spe <= 133.0\ngini = 0.28\nsamples = 31\nvalue = [1, 26, 4]\nclass = Low c", fillcolor="#5eea98"] ;
2 -> 3 ;
4 [label="atk <= 102.5\ngini = 0.14\nsamples = 27\nvalue = [0, 25, 2]\nclass = Low c", fillcolor="#49e78b"] ;
3 -> 4 ;
5 [label="gini = 0.0\nsamples = 22\nvalue = [0, 22, 0]\nclass = Low c", fillcolor="#39e581"] ;
4 -> 5 ;
6 [label="Pivot <= 1.5\ngini = 0.48\nsamples = 5\nvalue = [0, 3, 2]\nclass = Low c", fillcolor="#bdf6d5"] ;
4 -> 6 ;
7 [label="gini = 0.0\nsamples = 3\nvalue = [0, 3, 0]\nclass = Low c", fillcolor="#39e581"] ;
6 -> 7 ;
8 [label="gini = 0.0\nsamples = 2\nvalue = [0, 0, 2]\nclass = Mid c", fillcolor="#8139e5"] ;
6 -> 8 ;
9 [label="hp <= 70.5\ngini = 0.62\nsamples = 4\nvalue = [1, 1, 2]\nclass = Mid c", fillcolor="#d5bdf6"] ;
3 -> 9 ;
10 [label="gini = 0.0\nsamples = 2\nvalue = [0, 0, 2]\nclass = Mid c", fillcolor="#8139e5"] ;
9 -> 10 ;
11 [label="gini = 0.5\nsamples = 2\nvalue = [1, 1, 0]\nclass = High c", fillcolor="#ffffff"] ;
9 -> 11 ;
12 [label="spe <= 107.0\ngini = 0.61\nsamples = 141\nvalue = [21, 67, 53]\nclass = Low c", fillcolor="#dffbeb"] ;
2 -> 12 ;
13 [label="Entry Hazards <= 2.5\ngini = 0.57\nsamples = 121\nvalue = [13, 65, 43]\nclass = Low c", fillcolor="#c7f8db"] ;
12 -> 13 ;
14 [label="atk <= 127.5\ngini = 0.55\nsamples = 108\nvalue = [12, 63, 33]\nclass = Low c", fillcolor="#b0f5cd"] ;
13 -> 14 ;
15 [label="Resistance Index <= 0.5\ngini = 0.53\nsamples = 101\nvalue = [11, 63, 27]\nclass = Low c", fillcolor="#9ff2c2"] ;
14 -> 15 ;
16 [label="hp <= 81.0\ngini = 0.09\nsamples = 22\nvalue = [0, 21, 1]\nclass = Low c", fillcolor="#42e687"] ;
15 -> 16 ;
17 [label="gini = 0.0\nsamples = 20\nvalue = [0, 20, 0]\nclass = Low c", fillcolor="#39e581"] ;
16 -> 17 ;
18 [label="gini = 0.5\nsamples = 2\nvalue = [0, 1, 1]\nclass = Low c", fillcolor="#ffffff"] ;
16 -> 18 ;
19 [label="Physical Cutoff 3 <= 11.5\ngini = 0.59\nsamples = 79\nvalue = [11, 42, 26]\nclass = Low c", fillcolor="#c3f7d9"] ;
15 -> 19 ;
20 [label="spa <= 96.0\ngini = 0.54\nsamples = 66\nvalue = [8, 40, 18]\nclass = Low c", fillcolor="#a4f3c5"] ;
19 -> 20 ;
21 [label="Weather Gimmick <= 5.5\ngini = 0.45\nsamples = 48\nvalue = [5, 34, 9]\nclass = Low c", fillcolor="#80eeae"] ;
20 -> 21 ;
22 [label="gini = 0.4\nsamples = 44\nvalue = [3, 33, 8]\nclass = Low c", fillcolor="#76eda8"] ;
21 -> 22 ;
23 [label="gini = 0.62\nsamples = 4\nvalue = [2, 1, 1]\nclass = High c", fillcolor="#f6d5bd"] ;
21 -> 23 ;
24 [label="Special Cutoff 3 <= 6.5\ngini = 0.61\nsamples = 18\nvalue = [3, 6, 9]\nclass = Mid c", fillcolor="#e0cef8"] ;
20 -> 24 ;
25 [label="gini = 0.0\nsamples = 2\nvalue = [0, 2, 0]\nclass = Low c", fillcolor="#39e581"] ;
24 -> 25 ;
26 [label="gini = 0.59\nsamples = 16\nvalue = [3, 4, 9]\nclass = Mid c", fillcolor="#caacf4"] ;
24 -> 26 ;
27 [label="Best Ability <= 53.57\ngini = 0.54\nsamples = 13\nvalue = [3, 2, 8]\nclass = Mid c", fillcolor="#c09cf2"] ;
19 -> 27 ;
28 [label="Physical Coverage 3 <= 11.0\ngini = 0.5\nsamples = 4\nvalue = [2, 2, 0]\nclass = High c", fillcolor="#ffffff"] ;
27 -> 28 ;
29 [label="gini = 0.0\nsamples = 2\nvalue = [0, 2, 0]\nclass = Low c", fillcolor="#39e581"] ;
28 -> 29 ;
30 [label="gini = 0.0\nsamples = 2\nvalue = [2, 0, 0]\nclass = High c", fillcolor="#e58139"] ;
28 -> 30 ;
31 [label="Setup <= 4.5\ngini = 0.2\nsamples = 9\nvalue = [1, 0, 8]\nclass = Mid c", fillcolor="#9152e8"] ;
27 -> 31 ;
32 [label="gini = 0.0\nsamples = 7\nvalue = [0, 0, 7]\nclass = Mid c", fillcolor="#8139e5"] ;
31 -> 32 ;
33 [label="gini = 0.5\nsamples = 2\nvalue = [1, 0, 1]\nclass = High c", fillcolor="#ffffff"] ;
31 -> 33 ;
34 [label="HP Recovery <= 2.5\ngini = 0.24\nsamples = 7\nvalue = [1, 0, 6]\nclass = Mid c", fillcolor="#965ae9"] ;
14 -> 34 ;
35 [label="gini = 0.0\nsamples = 5\nvalue = [0, 0, 5]\nclass = Mid c", fillcolor="#8139e5"] ;
34 -> 35 ;
36 [label="gini = 0.5\nsamples = 2\nvalue = [1, 0, 1]\nclass = High c", fillcolor="#ffffff"] ;
34 -> 36 ;
37 [label="Special Cutoff 3 <= 4.5\ngini = 0.38\nsamples = 13\nvalue = [1, 2, 10]\nclass = Mid c", fillcolor="#a36fec"] ;
13 -> 37 ;
38 [label="gini = 0.44\nsamples = 3\nvalue = [0, 2, 1]\nclass = Low c", fillcolor="#9cf2c0"] ;
37 -> 38 ;
39 [label="spe <= 31.0\ngini = 0.18\nsamples = 10\nvalue = [1, 0, 9]\nclass = Mid c", fillcolor="#8f4fe8"] ;
37 -> 39 ;
40 [label="gini = 0.5\nsamples = 2\nvalue = [1, 0, 1]\nclass = High c", fillcolor="#ffffff"] ;
39 -> 40 ;
41 [label="gini = 0.0\nsamples = 8\nvalue = [0, 0, 8]\nclass = Mid c", fillcolor="#8139e5"] ;
39 -> 41 ;
42 [label="spd <= 87.5\ngini = 0.58\nsamples = 20\nvalue = [8, 2, 10]\nclass = Mid c", fillcolor="#eadefb"] ;
12 -> 42 ;
43 [label="atk <= 112.0\ngini = 0.55\nsamples = 17\nvalue = [5, 2, 10]\nclass = Mid c", fillcolor="#caacf4"] ;
42 -> 43 ;
44 [label="Physical Coverage 3 <= 9.5\ngini = 0.2\nsamples = 9\nvalue = [1, 0, 8]\nclass = Mid c", fillcolor="#9152e8"] ;
43 -> 44 ;
45 [label="gini = 0.0\nsamples = 7\nvalue = [0, 0, 7]\nclass = Mid c", fillcolor="#8139e5"] ;
44 -> 45 ;
46 [label="gini = 0.5\nsamples = 2\nvalue = [1, 0, 1]\nclass = High c", fillcolor="#ffffff"] ;
44 -> 46 ;
47 [label="Physical Cutoff 3 <= 11.0\ngini = 0.62\nsamples = 8\nvalue = [4, 2, 2]\nclass = High c", fillcolor="#f6d5bd"] ;
43 -> 47 ;
48 [label="spa <= 110.0\ngini = 0.44\nsamples = 6\nvalue = [4, 0, 2]\nclass = High c", fillcolor="#f2c09c"] ;
47 -> 48 ;
49 [label="gini = 0.0\nsamples = 4\nvalue = [4, 0, 0]\nclass = High c", fillcolor="#e58139"] ;
48 -> 49 ;
50 [label="gini = 0.0\nsamples = 2\nvalue = [0, 0, 2]\nclass = Mid c", fillcolor="#8139e5"] ;
48 -> 50 ;
51 [label="gini = 0.0\nsamples = 2\nvalue = [0, 2, 0]\nclass = Low c", fillcolor="#39e581"] ;
47 -> 51 ;
52 [label="gini = 0.0\nsamples = 3\nvalue = [3, 0, 0]\nclass = High c", fillcolor="#e58139"] ;
42 -> 52 ;
53 [label="spe <= 67.5\ngini = 0.6\nsamples = 20\nvalue = [10, 3, 7]\nclass = High c", fillcolor="#f9e2d1"] ;
1 -> 53 ;
54 [label="Pivot <= 1.5\ngini = 0.49\nsamples = 7\nvalue = [4, 3, 0]\nclass = High c", fillcolor="#f8e0ce"] ;
53 -> 54 ;
55 [label="HP Recovery <= 2.5\ngini = 0.38\nsamples = 4\nvalue = [1, 3, 0]\nclass = Low c", fillcolor="#7beeab"] ;
54 -> 55 ;
56 [label="gini = 0.5\nsamples = 2\nvalue = [1, 1, 0]\nclass = High c", fillcolor="#ffffff"] ;
55 -> 56 ;
57 [label="gini = 0.0\nsamples = 2\nvalue = [0, 2, 0]\nclass = Low c", fillcolor="#39e581"] ;
55 -> 57 ;
58 [label="gini = 0.0\nsamples = 3\nvalue = [3, 0, 0]\nclass = High c", fillcolor="#e58139"] ;
54 -> 58 ;
59 [label="spe <= 92.5\ngini = 0.5\nsamples = 13\nvalue = [6, 0, 7]\nclass = Mid c", fillcolor="#ede3fb"] ;
53 -> 59 ;
60 [label="gini = 0.0\nsamples = 5\nvalue = [0, 0, 5]\nclass = Mid c", fillcolor="#8139e5"] ;
59 -> 60 ;
61 [label="Physical Cutoff 3 <= 6.5\ngini = 0.38\nsamples = 8\nvalue = [6, 0, 2]\nclass = High c", fillcolor="#eeab7b"] ;
59 -> 61 ;
62 [label="spd <= 100.0\ngini = 0.5\nsamples = 4\nvalue = [2, 0, 2]\nclass = High c", fillcolor="#ffffff"] ;
61 -> 62 ;
63 [label="gini = 0.0\nsamples = 2\nvalue = [0, 0, 2]\nclass = Mid c", fillcolor="#8139e5"] ;
62 -> 63 ;
64 [label="gini = 0.0\nsamples = 2\nvalue = [2, 0, 0]\nclass = High c", fillcolor="#e58139"] ;
62 -> 64 ;
65 [label="gini = 0.0\nsamples = 4\nvalue = [4, 0, 0]\nclass = High c", fillcolor="#e58139"] ;
61 -> 65 ;
66 [label="def <= 87.0\ngini = 0.63\nsamples = 110\nvalue = [51, 23, 36]\nclass = High c", fillcolor="#fae5d7"] ;
0 -> 66 [labeldistance=2.5, labelangle=-45, headlabel="False"] ;
67 [label="Misc Status <= 2.5\ngini = 0.6\nsamples = 42\nvalue = [9, 10, 23]\nclass = Mid c", fillcolor="#ccaff4"] ;
66 -> 67 ;
68 [label="spa <= 47.5\ngini = 0.41\nsamples = 19\nvalue = [1, 4, 14]\nclass = Mid c", fillcolor="#ab7bee"] ;
67 -> 68 ;
69 [label="gini = 0.0\nsamples = 2\nvalue = [0, 2, 0]\nclass = Low c", fillcolor="#39e581"] ;
68 -> 69 ;
70 [label="spe <= 34.5\ngini = 0.3\nsamples = 17\nvalue = [1, 2, 14]\nclass = Mid c", fillcolor="#9a61ea"] ;
68 -> 70 ;
71 [label="gini = 0.44\nsamples = 3\nvalue = [0, 2, 1]\nclass = Low c", fillcolor="#9cf2c0"] ;
70 -> 71 ;
72 [label="Entry Hazards <= 1.0\ngini = 0.13\nsamples = 14\nvalue = [1, 0, 13]\nclass = Mid c", fillcolor="#8b48e7"] ;
70 -> 72 ;
73 [label="gini = 0.0\nsamples = 12\nvalue = [0, 0, 12]\nclass = Mid c", fillcolor="#8139e5"] ;
72 -> 73 ;
74 [label="gini = 0.5\nsamples = 2\nvalue = [1, 0, 1]\nclass = High c", fillcolor="#ffffff"] ;
72 -> 74 ;
75 [label="Special Cutoff 3 <= 6.5\ngini = 0.66\nsamples = 23\nvalue = [8, 6, 9]\nclass = Mid c", fillcolor="#f7f2fd"] ;
67 -> 75 ;
76 [label="Best Ability <= 88.19\ngini = 0.45\nsamples = 7\nvalue = [5, 1, 1]\nclass = High c", fillcolor="#eeab7b"] ;
75 -> 76 ;
77 [label="gini = 0.0\nsamples = 4\nvalue = [4, 0, 0]\nclass = High c", fillcolor="#e58139"] ;
76 -> 77 ;
78 [label="gini = 0.67\nsamples = 3\nvalue = [1, 1, 1]\nclass = High c", fillcolor="#ffffff"] ;
76 -> 78 ;
79 [label="Resistance Index <= 1.5\ngini = 0.62\nsamples = 16\nvalue = [3, 5, 8]\nclass = Mid c", fillcolor="#ddc9f8"] ;
75 -> 79 ;
80 [label="Special Cutoff 3 <= 11.5\ngini = 0.5\nsamples = 4\nvalue = [2, 2, 0]\nclass = High c", fillcolor="#ffffff"] ;
79 -> 80 ;
81 [label="gini = 0.0\nsamples = 2\nvalue = [0, 2, 0]\nclass = Low c", fillcolor="#39e581"] ;
80 -> 81 ;
82 [label="gini = 0.0\nsamples = 2\nvalue = [2, 0, 0]\nclass = High c", fillcolor="#e58139"] ;
80 -> 82 ;
83 [label="Setup <= 3.5\ngini = 0.49\nsamples = 12\nvalue = [1, 3, 8]\nclass = Mid c", fillcolor="#b991f1"] ;
79 -> 83 ;
84 [label="Physical Coverage 3 <= 5.5\ngini = 0.22\nsamples = 8\nvalue = [0, 1, 7]\nclass = Mid c", fillcolor="#9355e9"] ;
83 -> 84 ;
85 [label="gini = 0.5\nsamples = 2\nvalue = [0, 1, 1]\nclass = Low c", fillcolor="#ffffff"] ;
84 -> 85 ;
86 [label="gini = 0.0\nsamples = 6\nvalue = [0, 0, 6]\nclass = Mid c", fillcolor="#8139e5"] ;
84 -> 86 ;
87 [label="Special Cutoff 3 <= 10.5\ngini = 0.62\nsamples = 4\nvalue = [1, 2, 1]\nclass = Low c", fillcolor="#bdf6d5"] ;
83 -> 87 ;
88 [label="gini = 0.0\nsamples = 2\nvalue = [0, 2, 0]\nclass = Low c", fillcolor="#39e581"] ;
87 -> 88 ;
89 [label="gini = 0.5\nsamples = 2\nvalue = [1, 0, 1]\nclass = High c", fillcolor="#ffffff"] ;
87 -> 89 ;
90 [label="spa <= 49.0\ngini = 0.55\nsamples = 68\nvalue = [42, 13, 13]\nclass = High c", fillcolor="#f1bd97"] ;
66 -> 90 ;
91 [label="gini = 0.0\nsamples = 5\nvalue = [0, 5, 0]\nclass = Low c", fillcolor="#39e581"] ;
90 -> 91 ;
92 [label="atk <= 97.5\ngini = 0.5\nsamples = 63\nvalue = [42, 8, 13]\nclass = High c", fillcolor="#f0b68c"] ;
90 -> 92 ;
93 [label="Physical Cutoff 3 <= 9.5\ngini = 0.66\nsamples = 20\nvalue = [7, 8, 5]\nclass = Low c", fillcolor="#f0fdf5"] ;
92 -> 93 ;
94 [label="Setup <= 3.5\ngini = 0.44\nsamples = 9\nvalue = [6, 0, 3]\nclass = High c", fillcolor="#f2c09c"] ;
93 -> 94 ;
95 [label="hp <= 103.0\ngini = 0.38\nsamples = 4\nvalue = [1, 0, 3]\nclass = Mid c", fillcolor="#ab7bee"] ;
94 -> 95 ;
96 [label="gini = 0.0\nsamples = 2\nvalue = [0, 0, 2]\nclass = Mid c", fillcolor="#8139e5"] ;
95 -> 96 ;
97 [label="gini = 0.5\nsamples = 2\nvalue = [1, 0, 1]\nclass = High c", fillcolor="#ffffff"] ;
95 -> 97 ;
98 [label="gini = 0.0\nsamples = 5\nvalue = [5, 0, 0]\nclass = High c", fillcolor="#e58139"] ;
94 -> 98 ;
99 [label="spd <= 85.5\ngini = 0.43\nsamples = 11\nvalue = [1, 8, 2]\nclass = Low c", fillcolor="#7beeab"] ;
93 -> 99 ;
100 [label="gini = 0.5\nsamples = 2\nvalue = [1, 0, 1]\nclass = High c", fillcolor="#ffffff"] ;
99 -> 100 ;
101 [label="Resistance Index <= 4.0\ngini = 0.2\nsamples = 9\nvalue = [0, 8, 1]\nclass = Low c", fillcolor="#52e891"] ;
99 -> 101 ;
102 [label="gini = 0.0\nsamples = 7\nvalue = [0, 7, 0]\nclass = Low c", fillcolor="#39e581"] ;
101 -> 102 ;
103 [label="gini = 0.5\nsamples = 2\nvalue = [0, 1, 1]\nclass = Low c", fillcolor="#ffffff"] ;
101 -> 103 ;
104 [label="spe <= 68.0\ngini = 0.3\nsamples = 43\nvalue = [35, 0, 8]\nclass = High c", fillcolor="#eb9e66"] ;
92 -> 104 ;
105 [label="Weather Gimmick <= 1.5\ngini = 0.49\nsamples = 9\nvalue = [4, 0, 5]\nclass = Mid c", fillcolor="#e6d7fa"] ;
104 -> 105 ;
106 [label="gini = 0.0\nsamples = 4\nvalue = [0, 0, 4]\nclass = Mid c", fillcolor="#8139e5"] ;
105 -> 106 ;
107 [label="def <= 114.0\ngini = 0.32\nsamples = 5\nvalue = [4, 0, 1]\nclass = High c", fillcolor="#eca06a"] ;
105 -> 107 ;
108 [label="gini = 0.5\nsamples = 2\nvalue = [1, 0, 1]\nclass = High c", fillcolor="#ffffff"] ;
107 -> 108 ;
109 [label="gini = 0.0\nsamples = 3\nvalue = [3, 0, 0]\nclass = High c", fillcolor="#e58139"] ;
107 -> 109 ;
110 [label="Cleric <= 1.5\ngini = 0.16\nsamples = 34\nvalue = [31, 0, 3]\nclass = High c", fillcolor="#e88d4c"] ;
104 -> 110 ;
111 [label="spe <= 79.5\ngini = 0.06\nsamples = 32\nvalue = [31, 0, 1]\nclass = High c", fillcolor="#e6853f"] ;
110 -> 111 ;
112 [label="atk <= 110.0\ngini = 0.38\nsamples = 4\nvalue = [3, 0, 1]\nclass = High c", fillcolor="#eeab7b"] ;
111 -> 112 ;
113 [label="gini = 0.5\nsamples = 2\nvalue = [1, 0, 1]\nclass = High c", fillcolor="#ffffff"] ;
112 -> 113 ;
114 [label="gini = 0.0\nsamples = 2\nvalue = [2, 0, 0]\nclass = High c", fillcolor="#e58139"] ;
112 -> 114 ;
115 [label="gini = 0.0\nsamples = 28\nvalue = [28, 0, 0]\nclass = High c", fillcolor="#e58139"] ;
111 -> 115 ;
116 [label="gini = 0.0\nsamples = 2\nvalue = [0, 0, 2]\nclass = Mid c", fillcolor="#8139e5"] ;
110 -> 116 ;
}