digraph Tree {
node [shape=box, style="filled, rounded", color="black", fontname=helvetica] ;
edge [fontname=helvetica] ;
0 [label="0 <= 0.5\ngini = 0.75\nsamples = 553\nvalue = [138.25, 138.25, 138.25, 138.25]\nclass = High c", fillcolor="#ffffff"] ;
1 [label="hp <= 0.35\ngini = 0.73\nsamples = 409\nvalue = [138.25, 132.44, 136.87, 62.24]\nclass = High c", fillcolor="#fffefe"] ;
0 -> 1 [labeldistance=2.5, labelangle=45, headlabel="True"] ;
2 [label="spd <= 0.18\ngini = 0.73\nsamples = 278\nvalue = [53.3, 105.72, 88.48, 50.12]\nclass = Low c", fillcolor="#f0fdef"] ;
1 -> 2 ;
3 [label="atk <= 0.46\ngini = 0.61\nsamples = 72\nvalue = [6.66, 5.81, 11.06, 30.29]\nclass = Not c", fillcolor="#eda6f3"] ;
2 -> 3 ;
4 [label="spa <= 0.54\ngini = 0.24\nsamples = 56\nvalue = [0.0, 4.65, 0.0, 28.64]\nclass = Not c", fillcolor="#dd59e9"] ;
3 -> 4 ;
5 [label="Resistance Index <= 0.73\ngini = 0.14\nsamples = 52\nvalue = [0.0, 2.32, 0.0, 27.54]\nclass = Not c", fillcolor="#da4ae7"] ;
4 -> 5 ;
6 [label="spe <= 0.42\ngini = 0.08\nsamples = 50\nvalue = [0.0, 1.16, 0.0, 26.99]\nclass = Not c", fillcolor="#d942e6"] ;
5 -> 6 ;
7 [label="gini = -0.0\nsamples = 47\nvalue = [0.0, 0.0, 0.0, 25.89]\nclass = Not c", fillcolor="#d739e5"] ;
6 -> 7 ;
8 [label="gini = 0.5\nsamples = 3\nvalue = [0.0, 1.16, 0.0, 1.1]\nclass = Low c", fillcolor="#f5fef5"] ;
6 -> 8 ;
9 [label="gini = 0.44\nsamples = 2\nvalue = [0.0, 1.16, 0.0, 0.55]\nclass = Low c", fillcolor="#9ef197"] ;
5 -> 9 ;
10 [label="gini = 0.44\nsamples = 4\nvalue = [0.0, 2.32, 0.0, 1.1]\nclass = Low c", fillcolor="#9ef197"] ;
4 -> 10 ;
11 [label="gini = 0.6\nsamples = 16\nvalue = [6.66, 1.16, 11.06, 1.65]\nclass = Mid c", fillcolor="#c0e0f7"] ;
3 -> 11 ;
12 [label="def <= 0.26\ngini = 0.69\nsamples = 206\nvalue = [46.64, 99.91, 77.42, 19.83]\nclass = Low c", fillcolor="#e6fbe4"] ;
2 -> 12 ;
13 [label="spa <= 0.72\ngini = 0.52\nsamples = 41\nvalue = [3.33, 27.88, 4.15, 6.61]\nclass = Low c", fillcolor="#90ef88"] ;
12 -> 13 ;
14 [label="spe <= 0.29\ngini = 0.41\nsamples = 37\nvalue = [0.0, 26.72, 2.76, 6.61]\nclass = Low c", fillcolor="#82ed78"] ;
13 -> 14 ;
15 [label="gini = 0.0\nsamples = 7\nvalue = [0.0, 0.0, 0.0, 3.86]\nclass = Not c", fillcolor="#d739e5"] ;
14 -> 15 ;
16 [label="Best Ability <= 0.42\ngini = 0.3\nsamples = 30\nvalue = [0.0, 26.72, 2.76, 2.75]\nclass = Low c", fillcolor="#69ea5e"] ;
14 -> 16 ;
17 [label="gini = 0.53\nsamples = 7\nvalue = [0.0, 4.65, 2.76, 0.55]\nclass = Low c", fillcolor="#bcf6b7"] ;
16 -> 17 ;
18 [label="Special Coverage 5 <= 0.08\ngini = 0.17\nsamples = 23\nvalue = [0.0, 22.07, 0.0, 2.2]\nclass = Low c", fillcolor="#59e84d"] ;
16 -> 18 ;
19 [label="gini = 0.0\nsamples = 2\nvalue = [0.0, 0.0, 0.0, 1.1]\nclass = Not c", fillcolor="#d739e5"] ;
18 -> 19 ;
20 [label="Weather Gimmick <= 0.08\ngini = 0.09\nsamples = 21\nvalue = [0.0, 22.07, 0.0, 1.1]\nclass = Low c", fillcolor="#50e643"] ;
18 -> 20 ;
21 [label="gini = 0.5\nsamples = 3\nvalue = [0.0, 1.16, 0.0, 1.1]\nclass = Low c", fillcolor="#f5fef5"] ;
20 -> 21 ;
22 [label="gini = 0.0\nsamples = 18\nvalue = [0.0, 20.91, 0.0, 0.0]\nclass = Low c", fillcolor="#47e539"] ;
20 -> 22 ;
23 [label="gini = 0.58\nsamples = 4\nvalue = [3.33, 1.16, 1.38, 0.0]\nclass = High c", fillcolor="#f4c8a9"] ;
13 -> 23 ;
24 [label="Resistance Index <= 0.16\ngini = 0.69\nsamples = 165\nvalue = [43.31, 72.03, 73.27, 13.22]\nclass = Mid c", fillcolor="#fdfeff"] ;
12 -> 24 ;
25 [label="spe <= 0.56\ngini = 0.4\nsamples = 24\nvalue = [0.0, 19.75, 4.15, 2.2]\nclass = Low c", fillcolor="#7ced72"] ;
24 -> 25 ;
26 [label="spe <= 0.14\ngini = 0.27\nsamples = 22\nvalue = [0.0, 19.75, 1.38, 2.2]\nclass = Low c", fillcolor="#66e95b"] ;
25 -> 26 ;
27 [label="gini = 0.0\nsamples = 1\nvalue = [0.0, 0.0, 1.38, 0.0]\nclass = Mid c", fillcolor="#399de5"] ;
26 -> 27 ;
28 [label="Best Ability <= 0.79\ngini = 0.18\nsamples = 21\nvalue = [0.0, 19.75, 0.0, 2.2]\nclass = Low c", fillcolor="#5ce84f"] ;
26 -> 28 ;
29 [label="gini = 0.0\nsamples = 14\nvalue = [0.0, 16.26, 0.0, 0.0]\nclass = Low c", fillcolor="#47e539"] ;
28 -> 29 ;
30 [label="gini = 0.47\nsamples = 7\nvalue = [0.0, 3.49, 0.0, 2.2]\nclass = Low c", fillcolor="#bbf5b6"] ;
28 -> 30 ;
31 [label="gini = 0.0\nsamples = 2\nvalue = [0.0, 0.0, 2.76, 0.0]\nclass = Mid c", fillcolor="#399de5"] ;
25 -> 31 ;
32 [label="spe <= 0.52\ngini = 0.69\nsamples = 141\nvalue = [43.31, 52.28, 69.12, 11.02]\nclass = Mid c", fillcolor="#e4f2fb"] ;
24 -> 32 ;
33 [label="spa <= 0.61\ngini = 0.69\nsamples = 125\nvalue = [29.98, 51.12, 59.45, 11.02]\nclass = Mid c", fillcolor="#eff7fd"] ;
32 -> 33 ;
34 [label="Physical Cutoff 3 <= 0.22\ngini = 0.68\nsamples = 102\nvalue = [16.66, 47.63, 42.86, 11.02]\nclass = Low c", fillcolor="#f3fdf2"] ;
33 -> 34 ;
35 [label="Misc Status <= 0.7\ngini = 0.67\nsamples = 85\nvalue = [13.33, 44.15, 27.65, 10.47]\nclass = Low c", fillcolor="#d2f9cf"] ;
34 -> 35 ;
36 [label="Entry Hazards <= 0.62\ngini = 0.58\nsamples = 57\nvalue = [1.67, 34.85, 15.21, 8.26]\nclass = Low c", fillcolor="#aef4a8"] ;
35 -> 36 ;
37 [label="gini = 0.51\nsamples = 52\nvalue = [0.0, 34.85, 9.68, 8.26]\nclass = Low c", fillcolor="#94f08b"] ;
36 -> 37 ;
38 [label="gini = 0.36\nsamples = 5\nvalue = [1.67, 0.0, 5.53, 0.0]\nclass = Mid c", fillcolor="#75bbed"] ;
36 -> 38 ;
39 [label="def <= 0.41\ngini = 0.7\nsamples = 28\nvalue = [11.66, 9.29, 12.44, 2.2]\nclass = Mid c", fillcolor="#f9fcfe"] ;
35 -> 39 ;
40 [label="gini = 0.58\nsamples = 14\nvalue = [0.0, 5.81, 8.3, 1.65]\nclass = Mid c", fillcolor="#cee7f9"] ;
39 -> 40 ;
41 [label="gini = 0.58\nsamples = 14\nvalue = [11.66, 3.49, 4.15, 0.55]\nclass = High c", fillcolor="#f3c3a0"] ;
39 -> 41 ;
42 [label="gini = 0.5\nsamples = 17\nvalue = [3.33, 3.49, 15.21, 0.55]\nclass = Mid c", fillcolor="#85c3ef"] ;
34 -> 42 ;
43 [label="Pivot <= 0.67\ngini = 0.58\nsamples = 23\nvalue = [13.33, 3.49, 16.59, 0.0]\nclass = Mid c", fillcolor="#dfeffb"] ;
33 -> 43 ;
44 [label="gini = 0.45\nsamples = 14\nvalue = [3.33, 2.32, 13.82, 0.0]\nclass = Mid c", fillcolor="#7ebfee"] ;
43 -> 44 ;
45 [label="gini = 0.44\nsamples = 9\nvalue = [9.99, 1.16, 2.76, 0.0]\nclass = High c", fillcolor="#eead7f"] ;
43 -> 45 ;
46 [label="gini = 0.53\nsamples = 16\nvalue = [13.33, 1.16, 9.68, 0.0]\nclass = High c", fillcolor="#f8dfcd"] ;
32 -> 46 ;
47 [label="def <= 0.36\ngini = 0.65\nsamples = 131\nvalue = [84.95, 26.72, 48.39, 12.12]\nclass = High c", fillcolor="#f7dac5"] ;
1 -> 47 ;
48 [label="Misc Status <= 0.5\ngini = 0.68\nsamples = 54\nvalue = [14.99, 11.62, 30.42, 7.16]\nclass = Mid c", fillcolor="#c1e0f7"] ;
47 -> 48 ;
49 [label="spa <= 0.23\ngini = 0.5\nsamples = 24\nvalue = [1.67, 4.65, 19.36, 2.75]\nclass = Mid c", fillcolor="#85c2ef"] ;
48 -> 49 ;
50 [label="gini = 0.31\nsamples = 3\nvalue = [0.0, 2.32, 0.0, 0.55]\nclass = Low c", fillcolor="#73eb68"] ;
49 -> 50 ;
51 [label="Resistance Index <= 0.11\ngini = 0.41\nsamples = 21\nvalue = [1.67, 2.32, 19.36, 2.2]\nclass = Mid c", fillcolor="#6eb7ec"] ;
49 -> 51 ;
52 [label="gini = 0.0\nsamples = 3\nvalue = [0.0, 0.0, 0.0, 1.65]\nclass = Not c", fillcolor="#d739e5"] ;
51 -> 52 ;
53 [label="gini = 0.33\nsamples = 18\nvalue = [1.67, 2.32, 19.36, 0.55]\nclass = Mid c", fillcolor="#63b2ea"] ;
51 -> 53 ;
54 [label="Physical Cutoff 3 <= 0.23\ngini = 0.71\nsamples = 30\nvalue = [13.33, 6.97, 11.06, 4.41]\nclass = High c", fillcolor="#fdf3ed"] ;
48 -> 54 ;
55 [label="spe <= 0.42\ngini = 0.73\nsamples = 27\nvalue = [8.33, 6.97, 11.06, 4.41]\nclass = Mid c", fillcolor="#e7f3fc"] ;
54 -> 55 ;
56 [label="gini = 0.73\nsamples = 19\nvalue = [3.33, 6.97, 4.15, 4.41]\nclass = Low c", fillcolor="#defadc"] ;
55 -> 56 ;
57 [label="gini = 0.49\nsamples = 8\nvalue = [5.0, 0.0, 6.91, 0.0]\nclass = Mid c", fillcolor="#c8e4f8"] ;
55 -> 57 ;
58 [label="gini = -0.0\nsamples = 3\nvalue = [5.0, 0.0, 0.0, 0.0]\nclass = High c", fillcolor="#e58139"] ;
54 -> 58 ;
59 [label="spa <= 0.24\ngini = 0.53\nsamples = 77\nvalue = [69.96, 15.1, 17.97, 4.96]\nclass = High c", fillcolor="#f0b68d"] ;
47 -> 59 ;
60 [label="gini = 0.0\nsamples = 5\nvalue = [0.0, 5.81, 0.0, 0.0]\nclass = Low c", fillcolor="#47e539"] ;
59 -> 60 ;
61 [label="atk <= 0.53\ngini = 0.49\nsamples = 72\nvalue = [69.96, 9.29, 17.97, 4.96]\nclass = High c", fillcolor="#efb185"] ;
59 -> 61 ;
62 [label="Physical Cutoff 3 <= 0.18\ngini = 0.73\nsamples = 29\nvalue = [11.66, 9.29, 6.91, 4.96]\nclass = High c", fillcolor="#fcf2eb"] ;
61 -> 62 ;
63 [label="gini = 0.46\nsamples = 10\nvalue = [9.99, 0.0, 4.15, 0.55]\nclass = High c", fillcolor="#f1b991"] ;
62 -> 63 ;
64 [label="gini = 0.65\nsamples = 19\nvalue = [1.67, 9.29, 2.76, 4.41]\nclass = Low c", fillcolor="#bdf6b8"] ;
62 -> 64 ;
65 [label="spe <= 0.32\ngini = 0.27\nsamples = 43\nvalue = [58.3, 0.0, 11.06, 0.0]\nclass = High c", fillcolor="#ea995f"] ;
61 -> 65 ;
66 [label="gini = 0.5\nsamples = 9\nvalue = [6.66, 0.0, 6.91, 0.0]\nclass = Mid c", fillcolor="#f8fbfe"] ;
65 -> 66 ;
67 [label="Cleric <= 0.5\ngini = 0.14\nsamples = 34\nvalue = [51.64, 0.0, 4.15, 0.0]\nclass = High c", fillcolor="#e78b49"] ;
65 -> 67 ;
68 [label="spe <= 0.38\ngini = 0.05\nsamples = 32\nvalue = [51.64, 0.0, 1.38, 0.0]\nclass = High c", fillcolor="#e6843e"] ;
67 -> 68 ;
69 [label="gini = 0.34\nsamples = 4\nvalue = [5.0, 0.0, 1.38, 0.0]\nclass = High c", fillcolor="#eca470"] ;
68 -> 69 ;
70 [label="gini = 0.0\nsamples = 28\nvalue = [46.64, 0.0, 0.0, 0.0]\nclass = High c", fillcolor="#e58139"] ;
68 -> 70 ;
71 [label="gini = 0.0\nsamples = 2\nvalue = [0.0, 0.0, 2.76, 0.0]\nclass = Mid c", fillcolor="#399de5"] ;
67 -> 71 ;
72 [label="spd <= 0.5\ngini = 0.16\nsamples = 144\nvalue = [0.0, 5.81, 1.38, 76.01]\nclass = Not c", fillcolor="#db4be7"] ;
0 -> 72 [labeldistance=2.5, labelangle=-45, headlabel="False"] ;
73 [label="spe <= 0.04\ngini = 0.11\nsamples = 141\nvalue = [0.0, 4.65, 0.0, 75.46]\nclass = Not c", fillcolor="#d945e7"] ;
72 -> 73 ;
74 [label="gini = 0.5\nsamples = 3\nvalue = [0.0, 1.16, 0.0, 1.1]\nclass = Low c", fillcolor="#f5fef5"] ;
73 -> 74 ;
75 [label="spa <= 0.46\ngini = 0.09\nsamples = 138\nvalue = [0.0, 3.49, 0.0, 74.36]\nclass = Not c", fillcolor="#d942e6"] ;
73 -> 75 ;
76 [label="def <= 0.07\ngini = 0.06\nsamples = 134\nvalue = [0.0, 2.32, 0.0, 72.71]\nclass = Not c", fillcolor="#d83fe6"] ;
75 -> 76 ;
77 [label="gini = 0.42\nsamples = 6\nvalue = [0.0, 1.16, 0.0, 2.75]\nclass = Not c", fillcolor="#e88df0"] ;
76 -> 77 ;
78 [label="spe <= 0.35\ngini = 0.03\nsamples = 128\nvalue = [0.0, 1.16, 0.0, 69.95]\nclass = Not c", fillcolor="#d83ce5"] ;
76 -> 78 ;
79 [label="gini = 0.0\nsamples = 119\nvalue = [0.0, 0.0, 0.0, 65.54]\nclass = Not c", fillcolor="#d739e5"] ;
78 -> 79 ;
80 [label="gini = 0.33\nsamples = 9\nvalue = [0.0, 1.16, 0.0, 4.41]\nclass = Not c", fillcolor="#e26dec"] ;
78 -> 80 ;
81 [label="gini = 0.48\nsamples = 4\nvalue = [0.0, 1.16, 0.0, 1.65]\nclass = Not c", fillcolor="#f3c4f7"] ;
75 -> 81 ;
82 [label="gini = 0.63\nsamples = 3\nvalue = [0.0, 1.16, 1.38, 0.55]\nclass = Mid c", fillcolor="#e8f4fc"] ;
72 -> 82 ;
}