digraph Tree {
node [shape=box, style="filled, rounded", color="black", fontname=helvetica] ;
edge [fontname=helvetica] ;
0 [label="spd <= 57.5\ngini = 0.73\nsamples = 553\nvalue = [31, 43, 119, 35, 34, 40, 251]\nclass = ZU", fillcolor="#f7c3da"] ;
1 [label="atk <= 91.0\ngini = 0.27\nsamples = 184\nvalue = [3, 2, 13, 5, 1, 4, 156]\nclass = ZU", fillcolor="#e9599a"] ;
0 -> 1 [labeldistance=2.5, labelangle=45, headlabel="True"] ;
2 [label="spe <= 92.5\ngini = 0.11\nsamples = 159\nvalue = [0, 0, 9, 0, 0, 0, 150]\nclass = ZU", fillcolor="#e7458d"] ;
1 -> 2 ;
3 [label="Item Removal <= 1.5\ngini = 0.07\nsamples = 154\nvalue = [0, 0, 6, 0, 0, 0, 148]\nclass = ZU", fillcolor="#e6418b"] ;
2 -> 3 ;
4 [label="def <= 21.5\ngini = 0.02\nsamples = 115\nvalue = [0, 0, 1, 0, 0, 0, 114]\nclass = ZU", fillcolor="#e53b87"] ;
3 -> 4 ;
5 [label="gini = 0.32\nsamples = 5\nvalue = [0, 0, 1, 0, 0, 0, 4]\nclass = ZU", fillcolor="#ec6aa4"] ;
4 -> 5 ;
6 [label="gini = 0.0\nsamples = 110\nvalue = [0, 0, 0, 0, 0, 0, 110]\nclass = ZU", fillcolor="#e53986"] ;
4 -> 6 ;
7 [label="gini = 0.22\nsamples = 39\nvalue = [0, 0, 5, 0, 0, 0, 34]\nclass = ZU", fillcolor="#e95698"] ;
3 -> 7 ;
8 [label="gini = 0.48\nsamples = 5\nvalue = [0, 0, 3, 0, 0, 0, 2]\nclass = PU", fillcolor="#bdf6c4"] ;
2 -> 8 ;
9 [label="gini = 0.83\nsamples = 25\nvalue = [3, 2, 4, 5, 1, 4, 6]\nclass = ZU", fillcolor="#fef5f9"] ;
1 -> 9 ;
10 [label="atk <= 59.5\ngini = 0.81\nsamples = 369\nvalue = [28, 41, 106, 30, 33, 36, 95]\nclass = PU", fillcolor="#f7fef8"] ;
0 -> 10 [labeldistance=2.5, labelangle=-45, headlabel="False"] ;
11 [label="spa <= 75.5\ngini = 0.57\nsamples = 70\nvalue = [0, 4, 15, 1, 6, 1, 43]\nclass = ZU", fillcolor="#f29ac1"] ;
10 -> 11 ;
12 [label="Physical Cutoff 3 <= 5.5\ngini = 0.3\nsamples = 42\nvalue = [0, 2, 3, 0, 1, 1, 35]\nclass = ZU", fillcolor="#ea5d9c"] ;
11 -> 12 ;
13 [label="gini = 0.0\nsamples = 30\nvalue = [0, 0, 0, 0, 0, 0, 30]\nclass = ZU", fillcolor="#e53986"] ;
12 -> 13 ;
14 [label="gini = 0.72\nsamples = 12\nvalue = [0, 2, 3, 0, 1, 1, 5]\nclass = ZU", fillcolor="#f9d3e4"] ;
12 -> 14 ;
15 [label="gini = 0.7\nsamples = 28\nvalue = [0, 2, 12, 1, 5, 0, 8]\nclass = PU", fillcolor="#d7fadb"] ;
11 -> 15 ;
16 [label="hp <= 87.5\ngini = 0.82\nsamples = 299\nvalue = [28, 37, 91, 29, 27, 35, 52]\nclass = PU", fillcolor="#e0fbe3"] ;
10 -> 16 ;
17 [label="spa <= 93.5\ngini = 0.77\nsamples = 184\nvalue = [19, 16, 71, 23, 14, 5, 36]\nclass = PU", fillcolor="#d0f9d5"] ;
16 -> 17 ;
18 [label="atk <= 85.5\ngini = 0.71\nsamples = 118\nvalue = [10, 4, 53, 15, 3, 3, 30]\nclass = PU", fillcolor="#cbf8d0"] ;
17 -> 18 ;
19 [label="Item Removal <= 1.0\ngini = 0.62\nsamples = 53\nvalue = [1, 0, 20, 5, 0, 2, 25]\nclass = ZU", fillcolor="#fbe1ed"] ;
18 -> 19 ;
20 [label="def <= 85.0\ngini = 0.57\nsamples = 42\nvalue = [1, 0, 11, 4, 0, 1, 25]\nclass = ZU", fillcolor="#f3a6c8"] ;
19 -> 20 ;
21 [label="gini = 0.29\nsamples = 24\nvalue = [0, 0, 3, 1, 0, 0, 20]\nclass = ZU", fillcolor="#ea5f9d"] ;
20 -> 21 ;
22 [label="gini = 0.69\nsamples = 18\nvalue = [1, 0, 8, 3, 0, 1, 5]\nclass = PU", fillcolor="#d1f9d6"] ;
20 -> 22 ;
23 [label="gini = 0.31\nsamples = 11\nvalue = [0, 0, 9, 1, 0, 1, 0]\nclass = PU", fillcolor="#61ea71"] ;
19 -> 23 ;
24 [label="Best Ability <= 92.17\ngini = 0.69\nsamples = 65\nvalue = [9, 4, 33, 10, 3, 1, 5]\nclass = PU", fillcolor="#acf4b5"] ;
18 -> 24 ;
25 [label="hp <= 69.5\ngini = 0.56\nsamples = 42\nvalue = [2, 3, 27, 5, 1, 1, 3]\nclass = PU", fillcolor="#89f095"] ;
24 -> 25 ;
26 [label="gini = 0.09\nsamples = 20\nvalue = [0, 0, 19, 0, 0, 0, 1]\nclass = PU", fillcolor="#43e656"] ;
25 -> 26 ;
27 [label="gini = 0.78\nsamples = 22\nvalue = [2, 3, 8, 5, 1, 1, 2]\nclass = PU", fillcolor="#dcfae0"] ;
25 -> 27 ;
28 [label="gini = 0.78\nsamples = 23\nvalue = [7, 1, 6, 5, 2, 0, 2]\nclass = NU", fillcolor="#fdf8f3"] ;
24 -> 28 ;
29 [label="Resistance Index <= 3.5\ngini = 0.82\nsamples = 66\nvalue = [9, 12, 18, 8, 11, 2, 6]\nclass = PU", fillcolor="#e9fceb"] ;
17 -> 29 ;
30 [label="hp <= 78.5\ngini = 0.78\nsamples = 40\nvalue = [9, 3, 14, 4, 4, 0, 6]\nclass = PU", fillcolor="#dffbe2"] ;
29 -> 30 ;
31 [label="gini = 0.74\nsamples = 29\nvalue = [9, 0, 9, 1, 4, 0, 6]\nclass = NU", fillcolor="#ffffff"] ;
30 -> 31 ;
32 [label="gini = 0.64\nsamples = 11\nvalue = [0, 3, 5, 3, 0, 0, 0]\nclass = PU", fillcolor="#cef8d2"] ;
30 -> 32 ;
33 [label="gini = 0.75\nsamples = 26\nvalue = [0, 9, 4, 4, 7, 2, 0]\nclass = OU", fillcolor="#f7fcea"] ;
29 -> 33 ;
34 [label="atk <= 97.5\ngini = 0.83\nsamples = 115\nvalue = [9, 21, 20, 6, 13, 30, 16]\nclass = Uber", fillcolor="#f8ecfd"] ;
16 -> 34 ;
35 [label="Resistance Index <= 4.5\ngini = 0.8\nsamples = 57\nvalue = [6, 4, 16, 1, 9, 7, 14]\nclass = PU", fillcolor="#f6fef7"] ;
34 -> 35 ;
36 [label="atk <= 76.0\ngini = 0.76\nsamples = 42\nvalue = [5, 3, 13, 1, 3, 3, 14]\nclass = ZU", fillcolor="#fef8fb"] ;
35 -> 36 ;
37 [label="gini = 0.76\nsamples = 10\nvalue = [1, 3, 0, 1, 3, 0, 2]\nclass = OU", fillcolor="#ffffff"] ;
36 -> 37 ;
38 [label="gini = 0.67\nsamples = 32\nvalue = [4, 0, 13, 0, 0, 3, 12]\nclass = PU", fillcolor="#f5fef6"] ;
36 -> 38 ;
39 [label="gini = 0.72\nsamples = 15\nvalue = [1, 1, 3, 0, 6, 4, 0]\nclass = UU", fillcolor="#dbe0fa"] ;
35 -> 39 ;
40 [label="spe <= 86.5\ngini = 0.74\nsamples = 58\nvalue = [3, 17, 4, 5, 4, 23, 2]\nclass = Uber", fillcolor="#f4e2fb"] ;
34 -> 40 ;
41 [label="gini = 0.78\nsamples = 25\nvalue = [2, 9, 4, 5, 1, 2, 2]\nclass = OU", fillcolor="#f1fad7"] ;
40 -> 41 ;
42 [label="gini = 0.53\nsamples = 33\nvalue = [1, 8, 0, 0, 3, 21, 0]\nclass = Uber", fillcolor="#d698f1"] ;
40 -> 42 ;
}